svm_type c_svc
kernel_type rbf
gamma 0.1
nr_class 7
total_sv 350
rho 0.0390613 0.00526711 0.132599 0.0026083 0.037384 -0.000220239 0.00283629 -0.214178 -0.00910968 -0.0280657 -0.0140001 -0.133491 -0.0254065 0.0122979 -0.0196654 0.135132 0.0184143 0.0957584 0.00397295 0.00545129 -0.0141837
label -3 2 3 -2 -1 1 0
nr_sv 50 50 50 50 50 50 50
SV
1 1 1 1 1 1 0:0.156929 1:0.130435 2:0.163859 3:0.0326087 4:0.0896739 5:0.476902 6:0.136549 7:0.240489 8:0.464674 9:0.619565 10:0.847826 
1 1 1 1 1 1 0:0.128681 1:0.074904 2:0.126761 3:0.0115237 4:0.0941101 5:0.384123 6:0.174776 7:0.245839 8:0.361076 9:0.533931 10:0.837388 
1 1 1 1 1 1 0:0.130324 1:0.0996593 2:0.136457 3:0.0178876 4:0.0817717 5:0.41908 6:0.17121 7:0.27598 8:0.403748 9:0.654174 10:0.863714 
1 1 1 1 1 1 0:0.106586 1:0.0831889 2:0.120104 3:0.0129983 4:0.0805893 5:0.415945 6:0.114385 7:0.202773 8:0.405546 9:0.566724 10:0.816291 
1 1 1 1 1 1 0:0.0815217 1:0.0679348 2:0.0978261 3:0.013587 4:0.0597826 5:0.396739 6:0.149457 7:0.282609 8:0.445652 9:0.766304 10:0.853261 
1 1 1 1 1 1 0:0.0864865 1:0.0837838 2:0.107568 3:0.0162162 4:0.0864865 5:0.443243 6:0.118919 7:0.178378 8:0.351351 9:0.410811 10:0.772973 
1 1 1 1 1 1 0:0.0942149 1:0.0595041 2:0.0981818 3:0.00991736 4:0.0644628 5:0.446281 6:0.143802 7:0.238017 8:0.426446 9:0.619835 10:0.847934 
1 1 1 1 1 1 0:0.0928705 1:0.0956848 2:0.113696 3:0.0140713 4:0.0984991 5:0.450281 6:0.185741 7:0.30394 8:0.399625 9:0.765478 10:0.939962 
1 1 1 1 1 1 0:0.0810811 1:0.0434363 2:0.084556 3:0.0144788 4:0.0550193 5:0.428571 6:0.127413 7:0.237452 8:0.451737 9:0.648649 10:0.851351 
1 1 1 1 1 1 0:0.15544 1:0.101036 2:0.154404 3:0.00777202 4:0.106218 5:0.357513 6:0.176166 7:0.253886 8:0.419689 9:0.61658 10:0.797927 
1 1 1 1 1 1 0:0.156929 1:0.130435 2:0.163859 3:0.0326087 4:0.0896739 5:0.476902 6:0.136549 7:0.240489 8:0.464674 9:0.619565 10:0.847826 
1 1 1 1 1 1 0:0.128681 1:0.074904 2:0.126761 3:0.0115237 4:0.0941101 5:0.384123 6:0.174776 7:0.245839 8:0.361076 9:0.533931 10:0.837388 
1 1 1 1 1 1 0:0.130324 1:0.0996593 2:0.136457 3:0.0178876 4:0.0817717 5:0.41908 6:0.17121 7:0.27598 8:0.403748 9:0.654174 10:0.863714 
1 1 1 1 1 1 0:0.106586 1:0.0831889 2:0.120104 3:0.0129983 4:0.0805893 5:0.415945 6:0.114385 7:0.202773 8:0.405546 9:0.566724 10:0.816291 
1 1 1 1 1 1 0:0.0815217 1:0.0679348 2:0.0978261 3:0.013587 4:0.0597826 5:0.396739 6:0.149457 7:0.282609 8:0.445652 9:0.766304 10:0.853261 
1 1 1 1 1 1 0:0.0864865 1:0.0837838 2:0.107568 3:0.0162162 4:0.0864865 5:0.443243 6:0.118919 7:0.178378 8:0.351351 9:0.410811 10:0.772973 
1 1 1 1 1 1 0:0.0942149 1:0.0595041 2:0.0981818 3:0.00991736 4:0.0644628 5:0.446281 6:0.143802 7:0.238017 8:0.426446 9:0.619835 10:0.847934 
1 1 1 1 1 1 0:0.0928705 1:0.0956848 2:0.113696 3:0.0140713 4:0.0984991 5:0.450281 6:0.185741 7:0.30394 8:0.399625 9:0.765478 10:0.939962 
1 1 1 1 1 1 0:0.0810811 1:0.0434363 2:0.084556 3:0.0144788 4:0.0550193 5:0.428571 6:0.127413 7:0.237452 8:0.451737 9:0.648649 10:0.851351 
1 1 1 1 1 1 0:0.15544 1:0.101036 2:0.154404 3:0.00777202 4:0.106218 5:0.357513 6:0.176166 7:0.253886 8:0.419689 9:0.61658 10:0.797927 
1 1 1 1 1 1 0:0.156929 1:0.130435 2:0.163859 3:0.0326087 4:0.0896739 5:0.476902 6:0.136549 7:0.240489 8:0.464674 9:0.619565 10:0.847826 
1 1 1 1 1 1 0:0.128681 1:0.074904 2:0.126761 3:0.0115237 4:0.0941101 5:0.384123 6:0.174776 7:0.245839 8:0.361076 9:0.533931 10:0.837388 
1 1 1 1 1 1 0:0.130324 1:0.0996593 2:0.136457 3:0.0178876 4:0.0817717 5:0.41908 6:0.17121 7:0.27598 8:0.403748 9:0.654174 10:0.863714 
1 1 1 1 1 1 0:0.106586 1:0.0831889 2:0.120104 3:0.0129983 4:0.0805893 5:0.415945 6:0.114385 7:0.202773 8:0.405546 9:0.566724 10:0.816291 
1 1 1 1 1 1 0:0.0815217 1:0.0679348 2:0.0978261 3:0.013587 4:0.0597826 5:0.396739 6:0.149457 7:0.282609 8:0.445652 9:0.766304 10:0.853261 
1 1 1 1 1 1 0:0.0864865 1:0.0837838 2:0.107568 3:0.0162162 4:0.0864865 5:0.443243 6:0.118919 7:0.178378 8:0.351351 9:0.410811 10:0.772973 
1 1 1 1 1 1 0:0.0942149 1:0.0595041 2:0.0981818 3:0.00991736 4:0.0644628 5:0.446281 6:0.143802 7:0.238017 8:0.426446 9:0.619835 10:0.847934 
1 1 1 1 1 1 0:0.0928705 1:0.0956848 2:0.113696 3:0.0140713 4:0.0984991 5:0.450281 6:0.185741 7:0.30394 8:0.399625 9:0.765478 10:0.939962 
1 1 1 1 1 1 0:0.0810811 1:0.0434363 2:0.084556 3:0.0144788 4:0.0550193 5:0.428571 6:0.127413 7:0.237452 8:0.451737 9:0.648649 10:0.851351 
1 1 1 1 1 1 0:0.15544 1:0.101036 2:0.154404 3:0.00777202 4:0.106218 5:0.357513 6:0.176166 7:0.253886 8:0.419689 9:0.61658 10:0.797927 
1 1 1 1 1 1 0:0.156929 1:0.130435 2:0.163859 3:0.0326087 4:0.0896739 5:0.476902 6:0.136549 7:0.240489 8:0.464674 9:0.619565 10:0.847826 
1 1 1 1 1 1 0:0.128681 1:0.074904 2:0.126761 3:0.0115237 4:0.0941101 5:0.384123 6:0.174776 7:0.245839 8:0.361076 9:0.533931 10:0.837388 
1 1 1 1 1 1 0:0.130324 1:0.0996593 2:0.136457 3:0.0178876 4:0.0817717 5:0.41908 6:0.17121 7:0.27598 8:0.403748 9:0.654174 10:0.863714 
1 1 1 1 1 1 0:0.106586 1:0.0831889 2:0.120104 3:0.0129983 4:0.0805893 5:0.415945 6:0.114385 7:0.202773 8:0.405546 9:0.566724 10:0.816291 
1 1 1 1 1 1 0:0.0815217 1:0.0679348 2:0.0978261 3:0.013587 4:0.0597826 5:0.396739 6:0.149457 7:0.282609 8:0.445652 9:0.766304 10:0.853261 
1 1 1 1 1 1 0:0.0864865 1:0.0837838 2:0.107568 3:0.0162162 4:0.0864865 5:0.443243 6:0.118919 7:0.178378 8:0.351351 9:0.410811 10:0.772973 
1 1 1 1 1 1 0:0.0942149 1:0.0595041 2:0.0981818 3:0.00991736 4:0.0644628 5:0.446281 6:0.143802 7:0.238017 8:0.426446 9:0.619835 10:0.847934 
1 1 1 1 1 1 0:0.0928705 1:0.0956848 2:0.113696 3:0.0140713 4:0.0984991 5:0.450281 6:0.185741 7:0.30394 8:0.399625 9:0.765478 10:0.939962 
1 1 1 1 1 1 0:0.0810811 1:0.0434363 2:0.084556 3:0.0144788 4:0.0550193 5:0.428571 6:0.127413 7:0.237452 8:0.451737 9:0.648649 10:0.851351 
1 1 1 1 1 1 0:0.15544 1:0.101036 2:0.154404 3:0.00777202 4:0.106218 5:0.357513 6:0.176166 7:0.253886 8:0.419689 9:0.61658 10:0.797927 
1 1 1 1 1 1 0:0.156929 1:0.130435 2:0.163859 3:0.0326087 4:0.0896739 5:0.476902 6:0.136549 7:0.240489 8:0.464674 9:0.619565 10:0.847826 
1 1 1 1 1 1 0:0.128681 1:0.074904 2:0.126761 3:0.0115237 4:0.0941101 5:0.384123 6:0.174776 7:0.245839 8:0.361076 9:0.533931 10:0.837388 
1 1 1 1 1 1 0:0.130324 1:0.0996593 2:0.136457 3:0.0178876 4:0.0817717 5:0.41908 6:0.17121 7:0.27598 8:0.403748 9:0.654174 10:0.863714 
1 1 1 1 1 1 0:0.106586 1:0.0831889 2:0.120104 3:0.0129983 4:0.0805893 5:0.415945 6:0.114385 7:0.202773 8:0.405546 9:0.566724 10:0.816291 
1 1 1 1 1 1 0:0.0815217 1:0.0679348 2:0.0978261 3:0.013587 4:0.0597826 5:0.396739 6:0.149457 7:0.282609 8:0.445652 9:0.766304 10:0.853261 
1 1 1 1 1 1 0:0.0864865 1:0.0837838 2:0.107568 3:0.0162162 4:0.0864865 5:0.443243 6:0.118919 7:0.178378 8:0.351351 9:0.410811 10:0.772973 
1 1 1 1 1 1 0:0.0942149 1:0.0595041 2:0.0981818 3:0.00991736 4:0.0644628 5:0.446281 6:0.143802 7:0.238017 8:0.426446 9:0.619835 10:0.847934 
1 1 1 1 1 1 0:0.0928705 1:0.0956848 2:0.113696 3:0.0140713 4:0.0984991 5:0.450281 6:0.185741 7:0.30394 8:0.399625 9:0.765478 10:0.939962 
1 1 1 1 1 1 0:0.0810811 1:0.0434363 2:0.084556 3:0.0144788 4:0.0550193 5:0.428571 6:0.127413 7:0.237452 8:0.451737 9:0.648649 10:0.851351 
1 1 1 1 1 1 0:0.15544 1:0.101036 2:0.154404 3:0.00777202 4:0.106218 5:0.357513 6:0.176166 7:0.253886 8:0.419689 9:0.61658 10:0.797927 
-1 1 1 1 1 1 0:0.15085 1:0.125354 2:0.162323 3:0.0424929 4:0.138102 5:0.467422 6:0.161473 7:0.24221 8:0.331445 9:0.543909 10:0.858357 
-1 1 1 1 1 1 0:0.109655 1:0.0682759 2:0.118345 3:0.0144828 4:0.0848276 5:0.413793 6:0.153103 7:0.198621 8:0.318621 9:0.426207 10:0.777931 
-1 1 1 1 1 1 0:0.0911458 1:0.0911458 2:0.116667 3:0.0208333 4:0.0729167 5:0.390625 6:0.111979 7:0.177083 8:0.338542 9:0.447917 10:0.791667 
-1 1 1 1 1 1 0:0.0822669 1:0.071298 2:0.101463 3:0.00822669 4:0.0740402 5:0.383912 6:0.153565 7:0.20841 8:0.345521 9:0.493601 10:0.833638 
-1 1 1 1 1 1 0:0.076225 1:0.0544465 2:0.0882033 3:0.0163339 4:0.0571688 5:0.430127 6:0.144283 7:0.190563 8:0.343013 9:0.424682 10:0.84392 
-1 1 1 1 1 1 0:0.0831843 1:0.0912343 2:0.108408 3:0.0187835 4:0.0536673 5:0.423971 6:0.088551 7:0.182469 8:0.397138 9:0.499106 10:0.788909 
-1 1 1 1 1 1 0:0.0525292 1:0.0233463 2:0.0642023 3:0.0116732 4:0.0992218 5:0.420233 6:0.175097 7:0.233463 8:0.344358 9:0.484436 10:0.840467 
-1 1 0 1 1 1 0:0.0814941 1:0.0662139 2:0.0993209 3:0.0101868 4:0.0865874 5:0.417657 6:0.145161 7:0.203735 8:0.315789 9:0.42275 10:0.789474 
-1 1 1 1 1 1 0:0.118492 1:0.0969479 2:0.127648 3:0.021544 4:0.072711 5:0.436266 6:0.129264 7:0.193896 8:0.382406 9:0.490126 10:0.834829 
-1 1 0 1 1 1 0:0.0623917 1:0.0389948 2:0.0759099 3:0.0129983 4:0.0857886 5:0.363951 6:0.15078 7:0.192374 8:0.379549 9:0.421144 10:0.743501 
-1 1 1 1 1 1 0:0.15085 1:0.125354 2:0.162323 3:0.0424929 4:0.138102 5:0.467422 6:0.161473 7:0.24221 8:0.331445 9:0.543909 10:0.858357 
-1 1 1 1 1 1 0:0.109655 1:0.0682759 2:0.118345 3:0.0144828 4:0.0848276 5:0.413793 6:0.153103 7:0.198621 8:0.318621 9:0.426207 10:0.777931 
-1 1 1 1 1 1 0:0.0911458 1:0.0911458 2:0.116667 3:0.0208333 4:0.0729167 5:0.390625 6:0.111979 7:0.177083 8:0.338542 9:0.447917 10:0.791667 
-1 1 1 1 1 1 0:0.0822669 1:0.071298 2:0.101463 3:0.00822669 4:0.0740402 5:0.383912 6:0.153565 7:0.20841 8:0.345521 9:0.493601 10:0.833638 
-1 1 1 1 1 1 0:0.076225 1:0.0544465 2:0.0882033 3:0.0163339 4:0.0571688 5:0.430127 6:0.144283 7:0.190563 8:0.343013 9:0.424682 10:0.84392 
-1 1 1 1 1 1 0:0.0831843 1:0.0912343 2:0.108408 3:0.0187835 4:0.0536673 5:0.423971 6:0.088551 7:0.182469 8:0.397138 9:0.499106 10:0.788909 
-1 1 1 1 1 1 0:0.0525292 1:0.0233463 2:0.0642023 3:0.0116732 4:0.0992218 5:0.420233 6:0.175097 7:0.233463 8:0.344358 9:0.484436 10:0.840467 
-1 1 0 1 1 1 0:0.0814941 1:0.0662139 2:0.0993209 3:0.0101868 4:0.0865874 5:0.417657 6:0.145161 7:0.203735 8:0.315789 9:0.42275 10:0.789474 
-1 1 1 1 1 1 0:0.118492 1:0.0969479 2:0.127648 3:0.021544 4:0.072711 5:0.436266 6:0.129264 7:0.193896 8:0.382406 9:0.490126 10:0.834829 
-1 1 0 1 1 1 0:0.0623917 1:0.0389948 2:0.0759099 3:0.0129983 4:0.0857886 5:0.363951 6:0.15078 7:0.192374 8:0.379549 9:0.421144 10:0.743501 
-1 1 1 1 1 1 0:0.15085 1:0.125354 2:0.162323 3:0.0424929 4:0.138102 5:0.467422 6:0.161473 7:0.24221 8:0.331445 9:0.543909 10:0.858357 
-1 1 1 1 1 1 0:0.109655 1:0.0682759 2:0.118345 3:0.0144828 4:0.0848276 5:0.413793 6:0.153103 7:0.198621 8:0.318621 9:0.426207 10:0.777931 
-1 1 1 1 1 1 0:0.0911458 1:0.0911458 2:0.116667 3:0.0208333 4:0.0729167 5:0.390625 6:0.111979 7:0.177083 8:0.338542 9:0.447917 10:0.791667 
-1 1 1 1 1 1 0:0.0822669 1:0.071298 2:0.101463 3:0.00822669 4:0.0740402 5:0.383912 6:0.153565 7:0.20841 8:0.345521 9:0.493601 10:0.833638 
-1 1 1 1 1 1 0:0.076225 1:0.0544465 2:0.0882033 3:0.0163339 4:0.0571688 5:0.430127 6:0.144283 7:0.190563 8:0.343013 9:0.424682 10:0.84392 
-1 1 1 1 1 1 0:0.0831843 1:0.0912343 2:0.108408 3:0.0187835 4:0.0536673 5:0.423971 6:0.088551 7:0.182469 8:0.397138 9:0.499106 10:0.788909 
-1 1 1 1 1 1 0:0.0525292 1:0.0233463 2:0.0642023 3:0.0116732 4:0.0992218 5:0.420233 6:0.175097 7:0.233463 8:0.344358 9:0.484436 10:0.840467 
-1 1 0 1 1 1 0:0.0814941 1:0.0662139 2:0.0993209 3:0.0101868 4:0.0865874 5:0.417657 6:0.145161 7:0.203735 8:0.315789 9:0.42275 10:0.789474 
-1 1 1 1 1 1 0:0.118492 1:0.0969479 2:0.127648 3:0.021544 4:0.072711 5:0.436266 6:0.129264 7:0.193896 8:0.382406 9:0.490126 10:0.834829 
-1 1 0 1 1 1 0:0.0623917 1:0.0389948 2:0.0759099 3:0.0129983 4:0.0857886 5:0.363951 6:0.15078 7:0.192374 8:0.379549 9:0.421144 10:0.743501 
-1 1 1 1 1 1 0:0.15085 1:0.125354 2:0.162323 3:0.0424929 4:0.138102 5:0.467422 6:0.161473 7:0.24221 8:0.331445 9:0.543909 10:0.858357 
-1 1 1 1 1 1 0:0.109655 1:0.0682759 2:0.118345 3:0.0144828 4:0.0848276 5:0.413793 6:0.153103 7:0.198621 8:0.318621 9:0.426207 10:0.777931 
-1 1 1 1 1 1 0:0.0911458 1:0.0911458 2:0.116667 3:0.0208333 4:0.0729167 5:0.390625 6:0.111979 7:0.177083 8:0.338542 9:0.447917 10:0.791667 
-1 1 1 1 1 1 0:0.0822669 1:0.071298 2:0.101463 3:0.00822669 4:0.0740402 5:0.383912 6:0.153565 7:0.20841 8:0.345521 9:0.493601 10:0.833638 
-1 1 1 1 1 1 0:0.076225 1:0.0544465 2:0.0882033 3:0.0163339 4:0.0571688 5:0.430127 6:0.144283 7:0.190563 8:0.343013 9:0.424682 10:0.84392 
-1 1 1 1 1 1 0:0.0831843 1:0.0912343 2:0.108408 3:0.0187835 4:0.0536673 5:0.423971 6:0.088551 7:0.182469 8:0.397138 9:0.499106 10:0.788909 
-1 1 1 1 1 1 0:0.0525292 1:0.0233463 2:0.0642023 3:0.0116732 4:0.0992218 5:0.420233 6:0.175097 7:0.233463 8:0.344358 9:0.484436 10:0.840467 
-1 1 0.2365214185990901 1 1 1 0:0.0814941 1:0.0662139 2:0.0993209 3:0.0101868 4:0.0865874 5:0.417657 6:0.145161 7:0.203735 8:0.315789 9:0.42275 10:0.789474 
-1 1 1 1 1 1 0:0.118492 1:0.0969479 2:0.127648 3:0.021544 4:0.072711 5:0.436266 6:0.129264 7:0.193896 8:0.382406 9:0.490126 10:0.834829 
-1 1 0 1 1 1 0:0.0623917 1:0.0389948 2:0.0759099 3:0.0129983 4:0.0857886 5:0.363951 6:0.15078 7:0.192374 8:0.379549 9:0.421144 10:0.743501 
-1 1 1 1 1 1 0:0.15085 1:0.125354 2:0.162323 3:0.0424929 4:0.138102 5:0.467422 6:0.161473 7:0.24221 8:0.331445 9:0.543909 10:0.858357 
-1 1 1 1 1 1 0:0.109655 1:0.0682759 2:0.118345 3:0.0144828 4:0.0848276 5:0.413793 6:0.153103 7:0.198621 8:0.318621 9:0.426207 10:0.777931 
-1 1 1 1 1 1 0:0.0911458 1:0.0911458 2:0.116667 3:0.0208333 4:0.0729167 5:0.390625 6:0.111979 7:0.177083 8:0.338542 9:0.447917 10:0.791667 
-1 1 1 1 1 1 0:0.0822669 1:0.071298 2:0.101463 3:0.00822669 4:0.0740402 5:0.383912 6:0.153565 7:0.20841 8:0.345521 9:0.493601 10:0.833638 
-1 1 1 1 1 1 0:0.076225 1:0.0544465 2:0.0882033 3:0.0163339 4:0.0571688 5:0.430127 6:0.144283 7:0.190563 8:0.343013 9:0.424682 10:0.84392 
-1 1 1 1 1 1 0:0.0831843 1:0.0912343 2:0.108408 3:0.0187835 4:0.0536673 5:0.423971 6:0.088551 7:0.182469 8:0.397138 9:0.499106 10:0.788909 
-1 1 1 1 1 1 0:0.0525292 1:0.0233463 2:0.0642023 3:0.0116732 4:0.0992218 5:0.420233 6:0.175097 7:0.233463 8:0.344358 9:0.484436 10:0.840467 
-1 1 1 1 1 1 0:0.0814941 1:0.0662139 2:0.0993209 3:0.0101868 4:0.0865874 5:0.417657 6:0.145161 7:0.203735 8:0.315789 9:0.42275 10:0.789474 
-1 1 1 1 1 1 0:0.118492 1:0.0969479 2:0.127648 3:0.021544 4:0.072711 5:0.436266 6:0.129264 7:0.193896 8:0.382406 9:0.490126 10:0.834829 
-1 1 0 1 1 1 0:0.0623917 1:0.0389948 2:0.0759099 3:0.0129983 4:0.0857886 5:0.363951 6:0.15078 7:0.192374 8:0.379549 9:0.421144 10:0.743501 
-1 -1 1 1 1 1 0:0.131356 1:0.112288 2:0.147881 3:0.0275424 4:0.0805085 5:0.457627 6:0.141949 7:0.224576 8:0.381356 9:0.576271 10:0.894068 
-1 -1 1 1 1 1 0:0.10041 1:0.067623 2:0.111475 3:0.0245902 4:0.0532787 5:0.401639 6:0.141393 7:0.196721 8:0.344262 9:0.47541 10:0.786885 
-1 -1 1 1 1 1 0:0.0833333 1:0.0833333 2:0.108333 3:0.0130208 4:0.0494792 5:0.427083 6:0.101562 7:0.177083 8:0.364583 9:0.484375 10:0.817708 
-1 -1 1 1 1 1 0:0.0740402 1:0.0658135 2:0.0926874 3:0.00822669 4:0.0603291 5:0.367459 6:0.153565 7:0.213894 8:0.411335 9:0.526508 10:0.850091 
-1 -1 0 1 1 1 0:0.083935 1:0.0541516 2:0.0936823 3:0.0189531 4:0.0541516 5:0.406137 6:0.135379 7:0.173285 8:0.319495 9:0.416968 10:0.83935 
-1 -1 0 1 1 1 0:0.0996409 1:0.0861759 2:0.116338 3:0.005386 4:0.059246 5:0.398564 6:0.113106 7:0.177738 8:0.339318 9:0.436266 10:0.780969 
-1 -1 1 1 1 1 0:0.0495146 1:0.0262136 2:0.061165 3:0.0203883 4:0.0436893 5:0.372816 6:0.168932 7:0.227184 8:0.361165 9:0.524272 10:0.827184 
-1 -1 1 1 1 1 0:0.0816327 1:0.0586735 2:0.0954082 3:0.0255102 4:0.0535714 5:0.367347 6:0.132653 7:0.19898 8:0.352041 9:0.47449 10:0.780612 
-1 -1 1 1 1 1 0:0.11828 1:0.0913978 2:0.123656 3:0.0268817 4:0.0887097 5:0.478495 6:0.139785 7:0.231183 8:0.462366 9:0.607527 10:0.876344 
-1 -1 1 1 1 1 0:0.0621762 1:0.0492228 2:0.0787565 3:0.00777202 4:0.0803109 5:0.341969 6:0.170984 7:0.222798 8:0.357513 9:0.487047 10:0.766839 
-1 -1 1 1 1 1 0:0.131356 1:0.112288 2:0.147881 3:0.0275424 4:0.0805085 5:0.457627 6:0.141949 7:0.224576 8:0.381356 9:0.576271 10:0.894068 
-1 -1 1 1 1 1 0:0.10041 1:0.067623 2:0.111475 3:0.0245902 4:0.0532787 5:0.401639 6:0.141393 7:0.196721 8:0.344262 9:0.47541 10:0.786885 
-1 -1 1 1 1 1 0:0.0833333 1:0.0833333 2:0.108333 3:0.0130208 4:0.0494792 5:0.427083 6:0.101562 7:0.177083 8:0.364583 9:0.484375 10:0.817708 
-1 -1 1 1 1 1 0:0.0740402 1:0.0658135 2:0.0926874 3:0.00822669 4:0.0603291 5:0.367459 6:0.153565 7:0.213894 8:0.411335 9:0.526508 10:0.850091 
-1 -1 0 1 1 1 0:0.083935 1:0.0541516 2:0.0936823 3:0.0189531 4:0.0541516 5:0.406137 6:0.135379 7:0.173285 8:0.319495 9:0.416968 10:0.83935 
-1 -1 0 1 1 1 0:0.0996409 1:0.0861759 2:0.116338 3:0.005386 4:0.059246 5:0.398564 6:0.113106 7:0.177738 8:0.339318 9:0.436266 10:0.780969 
-1 -1 1 1 1 1 0:0.0495146 1:0.0262136 2:0.061165 3:0.0203883 4:0.0436893 5:0.372816 6:0.168932 7:0.227184 8:0.361165 9:0.524272 10:0.827184 
-1 -1 1 1 1 1 0:0.0816327 1:0.0586735 2:0.0954082 3:0.0255102 4:0.0535714 5:0.367347 6:0.132653 7:0.19898 8:0.352041 9:0.47449 10:0.780612 
-1 -1 1 1 1 1 0:0.11828 1:0.0913978 2:0.123656 3:0.0268817 4:0.0887097 5:0.478495 6:0.139785 7:0.231183 8:0.462366 9:0.607527 10:0.876344 
-1 -1 1 1 1 1 0:0.0621762 1:0.0492228 2:0.0787565 3:0.00777202 4:0.0803109 5:0.341969 6:0.170984 7:0.222798 8:0.357513 9:0.487047 10:0.766839 
-1 -1 1 1 1 1 0:0.131356 1:0.112288 2:0.147881 3:0.0275424 4:0.0805085 5:0.457627 6:0.141949 7:0.224576 8:0.381356 9:0.576271 10:0.894068 
-1 -1 1 1 1 1 0:0.10041 1:0.067623 2:0.111475 3:0.0245902 4:0.0532787 5:0.401639 6:0.141393 7:0.196721 8:0.344262 9:0.47541 10:0.786885 
-1 -1 1 1 1 1 0:0.0833333 1:0.0833333 2:0.108333 3:0.0130208 4:0.0494792 5:0.427083 6:0.101562 7:0.177083 8:0.364583 9:0.484375 10:0.817708 
-1 -1 1 1 1 1 0:0.0740402 1:0.0658135 2:0.0926874 3:0.00822669 4:0.0603291 5:0.367459 6:0.153565 7:0.213894 8:0.411335 9:0.526508 10:0.850091 
-1 -1 1 1 1 1 0:0.083935 1:0.0541516 2:0.0936823 3:0.0189531 4:0.0541516 5:0.406137 6:0.135379 7:0.173285 8:0.319495 9:0.416968 10:0.83935 
-1 -1 0 1 1 1 0:0.0996409 1:0.0861759 2:0.116338 3:0.005386 4:0.059246 5:0.398564 6:0.113106 7:0.177738 8:0.339318 9:0.436266 10:0.780969 
-1 -1 1 1 1 1 0:0.0495146 1:0.0262136 2:0.061165 3:0.0203883 4:0.0436893 5:0.372816 6:0.168932 7:0.227184 8:0.361165 9:0.524272 10:0.827184 
-1 -1 1 1 1 1 0:0.0816327 1:0.0586735 2:0.0954082 3:0.0255102 4:0.0535714 5:0.367347 6:0.132653 7:0.19898 8:0.352041 9:0.47449 10:0.780612 
-1 -1 1 1 1 1 0:0.11828 1:0.0913978 2:0.123656 3:0.0268817 4:0.0887097 5:0.478495 6:0.139785 7:0.231183 8:0.462366 9:0.607527 10:0.876344 
-1 -1 1 1 1 1 0:0.0621762 1:0.0492228 2:0.0787565 3:0.00777202 4:0.0803109 5:0.341969 6:0.170984 7:0.222798 8:0.357513 9:0.487047 10:0.766839 
-1 -1 1 1 1 1 0:0.131356 1:0.112288 2:0.147881 3:0.0275424 4:0.0805085 5:0.457627 6:0.141949 7:0.224576 8:0.381356 9:0.576271 10:0.894068 
-1 -1 1 1 1 1 0:0.10041 1:0.067623 2:0.111475 3:0.0245902 4:0.0532787 5:0.401639 6:0.141393 7:0.196721 8:0.344262 9:0.47541 10:0.786885 
-1 -1 1 1 1 1 0:0.0833333 1:0.0833333 2:0.108333 3:0.0130208 4:0.0494792 5:0.427083 6:0.101562 7:0.177083 8:0.364583 9:0.484375 10:0.817708 
-1 -1 1 1 1 1 0:0.0740402 1:0.0658135 2:0.0926874 3:0.00822669 4:0.0603291 5:0.367459 6:0.153565 7:0.213894 8:0.411335 9:0.526508 10:0.850091 
-1 -1 1 1 1 1 0:0.083935 1:0.0541516 2:0.0936823 3:0.0189531 4:0.0541516 5:0.406137 6:0.135379 7:0.173285 8:0.319495 9:0.416968 10:0.83935 
-1 -1 0 1 1 1 0:0.0996409 1:0.0861759 2:0.116338 3:0.005386 4:0.059246 5:0.398564 6:0.113106 7:0.177738 8:0.339318 9:0.436266 10:0.780969 
-1 -1 1 1 1 1 0:0.0495146 1:0.0262136 2:0.061165 3:0.0203883 4:0.0436893 5:0.372816 6:0.168932 7:0.227184 8:0.361165 9:0.524272 10:0.827184 
-1 -1 1 1 1 1 0:0.0816327 1:0.0586735 2:0.0954082 3:0.0255102 4:0.0535714 5:0.367347 6:0.132653 7:0.19898 8:0.352041 9:0.47449 10:0.780612 
-1 -1 1 1 1 1 0:0.11828 1:0.0913978 2:0.123656 3:0.0268817 4:0.0887097 5:0.478495 6:0.139785 7:0.231183 8:0.462366 9:0.607527 10:0.876344 
-1 -1 1 1 1 1 0:0.0621762 1:0.0492228 2:0.0787565 3:0.00777202 4:0.0803109 5:0.341969 6:0.170984 7:0.222798 8:0.357513 9:0.487047 10:0.766839 
-1 -1 1 1 1 1 0:0.131356 1:0.112288 2:0.147881 3:0.0275424 4:0.0805085 5:0.457627 6:0.141949 7:0.224576 8:0.381356 9:0.576271 10:0.894068 
-1 -1 1 1 1 1 0:0.10041 1:0.067623 2:0.111475 3:0.0245902 4:0.0532787 5:0.401639 6:0.141393 7:0.196721 8:0.344262 9:0.47541 10:0.786885 
-1 -1 1 1 1 1 0:0.0833333 1:0.0833333 2:0.108333 3:0.0130208 4:0.0494792 5:0.427083 6:0.101562 7:0.177083 8:0.364583 9:0.484375 10:0.817708 
-1 -1 1 1 1 1 0:0.0740402 1:0.0658135 2:0.0926874 3:0.00822669 4:0.0603291 5:0.367459 6:0.153565 7:0.213894 8:0.411335 9:0.526508 10:0.850091 
-1 -1 1 1 1 1 0:0.083935 1:0.0541516 2:0.0936823 3:0.0189531 4:0.0541516 5:0.406137 6:0.135379 7:0.173285 8:0.319495 9:0.416968 10:0.83935 
-1 -1 0.2885400799169923 1 1 1 0:0.0996409 1:0.0861759 2:0.116338 3:0.005386 4:0.059246 5:0.398564 6:0.113106 7:0.177738 8:0.339318 9:0.436266 10:0.780969 
-1 -1 1 1 1 1 0:0.0495146 1:0.0262136 2:0.061165 3:0.0203883 4:0.0436893 5:0.372816 6:0.168932 7:0.227184 8:0.361165 9:0.524272 10:0.827184 
-1 -1 1 1 1 1 0:0.0816327 1:0.0586735 2:0.0954082 3:0.0255102 4:0.0535714 5:0.367347 6:0.132653 7:0.19898 8:0.352041 9:0.47449 10:0.780612 
-1 -1 1 1 1 1 0:0.11828 1:0.0913978 2:0.123656 3:0.0268817 4:0.0887097 5:0.478495 6:0.139785 7:0.231183 8:0.462366 9:0.607527 10:0.876344 
-1 -1 1 1 1 1 0:0.0621762 1:0.0492228 2:0.0787565 3:0.00777202 4:0.0803109 5:0.341969 6:0.170984 7:0.222798 8:0.357513 9:0.487047 10:0.766839 
-1 -1 -1 1 1 1 0:0.143969 1:0.11284 2:0.153696 3:0.0175097 4:0.116732 5:0.389105 6:0.202335 7:0.291829 8:0.276265 9:0.653696 10:0.840467 
-1 -1 -1 1 1 1 0:0.15625 1:0.109375 2:0.159375 3:0.0234375 4:0.09375 5:0.442708 6:0.21875 7:0.390625 8:0.338542 9:1.05729 10:1.01562 
-1 -1 -1 1 1 1 0:0.180944 1:0.133741 2:0.186189 3:0.0262238 4:0.141608 5:0.41958 6:0.196678 7:0.367133 8:0.351399 9:1.02797 10:0.986014 
-1 -1 -1 1 1 1 0:0.121324 1:0.0882353 2:0.129596 3:0.0193015 4:0.132353 5:0.386029 6:0.198529 7:0.303309 8:0.369485 9:0.772059 10:0.84375 
-1 -1 -1 1 1 1 0:0.149201 1:0.098579 2:0.147602 3:0.0186501 4:0.0772647 5:0.442274 6:0.205151 7:0.287744 8:0.314387 9:0.687389 10:1.01776 
-1 -1 -1 1 1 1 0:0.136121 1:0.0934164 2:0.140391 3:0.00800712 4:0.104093 5:0.453737 6:0.186833 7:0.266904 8:0.30427 9:0.66726 10:0.976868 
-1 -0 -0 0.009976582316133324 0 1 0:0.139469 1:0.116698 2:0.150285 3:0.0056926 4:0.0939279 5:0.483871 6:0.227704 7:0.398482 8:0.370019 9:1.09298 10:1.06452 
-1 -1 -1 1 1 1 0:0.123092 1:0.0830153 2:0.128244 3:0.0171756 4:0.120229 5:0.423664 6:0.229008 7:0.291985 8:0.291985 9:0.641221 10:0.984733 
-1 -1 -1 1 1 1 0:0.15411 1:0.128425 2:0.164897 3:0.0205479 4:0.0744863 5:0.436644 6:0.128425 7:0.205479 8:0.333904 9:0.457192 10:0.780822 
-1 -0 -0 0 1 0 0:0.144128 1:0.106762 2:0.147865 3:0.0213523 4:0.0907473 5:0.448399 6:0.200178 7:0.384342 8:0.362989 9:1.12633 10:1.00356 
-1 -1 -1 1 1 1 0:0.143969 1:0.11284 2:0.153696 3:0.0175097 4:0.116732 5:0.389105 6:0.202335 7:0.291829 8:0.276265 9:0.653696 10:0.840467 
-1 -1 -1 1 1 1 0:0.15625 1:0.109375 2:0.159375 3:0.0234375 4:0.09375 5:0.442708 6:0.21875 7:0.390625 8:0.338542 9:1.05729 10:1.01562 
-1 -1 -1 1 1 1 0:0.180944 1:0.133741 2:0.186189 3:0.0262238 4:0.141608 5:0.41958 6:0.196678 7:0.367133 8:0.351399 9:1.02797 10:0.986014 
-1 -1 -1 1 1 1 0:0.121324 1:0.0882353 2:0.129596 3:0.0193015 4:0.132353 5:0.386029 6:0.198529 7:0.303309 8:0.369485 9:0.772059 10:0.84375 
-1 -1 -1 1 1 1 0:0.149201 1:0.098579 2:0.147602 3:0.0186501 4:0.0772647 5:0.442274 6:0.205151 7:0.287744 8:0.314387 9:0.687389 10:1.01776 
-1 -1 -1 1 1 1 0:0.136121 1:0.0934164 2:0.140391 3:0.00800712 4:0.104093 5:0.453737 6:0.186833 7:0.266904 8:0.30427 9:0.66726 10:0.976868 
-1 -0 -0 1 0.1459264463509592 1 0:0.139469 1:0.116698 2:0.150285 3:0.0056926 4:0.0939279 5:0.483871 6:0.227704 7:0.398482 8:0.370019 9:1.09298 10:1.06452 
-1 -1 -1 1 1 1 0:0.123092 1:0.0830153 2:0.128244 3:0.0171756 4:0.120229 5:0.423664 6:0.229008 7:0.291985 8:0.291985 9:0.641221 10:0.984733 
-1 -1 -1 1 1 1 0:0.15411 1:0.128425 2:0.164897 3:0.0205479 4:0.0744863 5:0.436644 6:0.128425 7:0.205479 8:0.333904 9:0.457192 10:0.780822 
-1 -0 -0.2885400799169923 0 1 0 0:0.144128 1:0.106762 2:0.147865 3:0.0213523 4:0.0907473 5:0.448399 6:0.200178 7:0.384342 8:0.362989 9:1.12633 10:1.00356 
-1 -1 -1 1 1 1 0:0.143969 1:0.11284 2:0.153696 3:0.0175097 4:0.116732 5:0.389105 6:0.202335 7:0.291829 8:0.276265 9:0.653696 10:0.840467 
-1 -1 -1 1 1 1 0:0.15625 1:0.109375 2:0.159375 3:0.0234375 4:0.09375 5:0.442708 6:0.21875 7:0.390625 8:0.338542 9:1.05729 10:1.01562 
-1 -1 -1 1 1 1 0:0.180944 1:0.133741 2:0.186189 3:0.0262238 4:0.141608 5:0.41958 6:0.196678 7:0.367133 8:0.351399 9:1.02797 10:0.986014 
-1 -1 -1 1 1 1 0:0.121324 1:0.0882353 2:0.129596 3:0.0193015 4:0.132353 5:0.386029 6:0.198529 7:0.303309 8:0.369485 9:0.772059 10:0.84375 
-1 -1 -1 1 1 1 0:0.149201 1:0.098579 2:0.147602 3:0.0186501 4:0.0772647 5:0.442274 6:0.205151 7:0.287744 8:0.314387 9:0.687389 10:1.01776 
-1 -1 -1 1 1 1 0:0.136121 1:0.0934164 2:0.140391 3:0.00800712 4:0.104093 5:0.453737 6:0.186833 7:0.266904 8:0.30427 9:0.66726 10:0.976868 
-1 -0 -0 1 1 1 0:0.139469 1:0.116698 2:0.150285 3:0.0056926 4:0.0939279 5:0.483871 6:0.227704 7:0.398482 8:0.370019 9:1.09298 10:1.06452 
-1 -1 -1 1 1 1 0:0.123092 1:0.0830153 2:0.128244 3:0.0171756 4:0.120229 5:0.423664 6:0.229008 7:0.291985 8:0.291985 9:0.641221 10:0.984733 
-1 -1 -1 1 1 1 0:0.15411 1:0.128425 2:0.164897 3:0.0205479 4:0.0744863 5:0.436644 6:0.128425 7:0.205479 8:0.333904 9:0.457192 10:0.780822 
-1 -0 -1 0 1 0 0:0.144128 1:0.106762 2:0.147865 3:0.0213523 4:0.0907473 5:0.448399 6:0.200178 7:0.384342 8:0.362989 9:1.12633 10:1.00356 
-1 -1 -1 1 1 1 0:0.143969 1:0.11284 2:0.153696 3:0.0175097 4:0.116732 5:0.389105 6:0.202335 7:0.291829 8:0.276265 9:0.653696 10:0.840467 
-1 -1 -1 1 1 1 0:0.15625 1:0.109375 2:0.159375 3:0.0234375 4:0.09375 5:0.442708 6:0.21875 7:0.390625 8:0.338542 9:1.05729 10:1.01562 
-1 -1 -1 1 1 1 0:0.180944 1:0.133741 2:0.186189 3:0.0262238 4:0.141608 5:0.41958 6:0.196678 7:0.367133 8:0.351399 9:1.02797 10:0.986014 
-1 -1 -1 1 1 1 0:0.121324 1:0.0882353 2:0.129596 3:0.0193015 4:0.132353 5:0.386029 6:0.198529 7:0.303309 8:0.369485 9:0.772059 10:0.84375 
-1 -1 -1 1 1 1 0:0.149201 1:0.098579 2:0.147602 3:0.0186501 4:0.0772647 5:0.442274 6:0.205151 7:0.287744 8:0.314387 9:0.687389 10:1.01776 
-1 -1 -1 1 1 1 0:0.136121 1:0.0934164 2:0.140391 3:0.00800712 4:0.104093 5:0.453737 6:0.186833 7:0.266904 8:0.30427 9:0.66726 10:0.976868 
-1 -0 -0 1 1 1 0:0.139469 1:0.116698 2:0.150285 3:0.0056926 4:0.0939279 5:0.483871 6:0.227704 7:0.398482 8:0.370019 9:1.09298 10:1.06452 
-1 -1 -1 1 1 1 0:0.123092 1:0.0830153 2:0.128244 3:0.0171756 4:0.120229 5:0.423664 6:0.229008 7:0.291985 8:0.291985 9:0.641221 10:0.984733 
-1 -1 -1 1 1 1 0:0.15411 1:0.128425 2:0.164897 3:0.0205479 4:0.0744863 5:0.436644 6:0.128425 7:0.205479 8:0.333904 9:0.457192 10:0.780822 
-1 -0.2365214185990901 -1 0 1 0 0:0.144128 1:0.106762 2:0.147865 3:0.0213523 4:0.0907473 5:0.448399 6:0.200178 7:0.384342 8:0.362989 9:1.12633 10:1.00356 
-1 -1 -1 1 1 1 0:0.143969 1:0.11284 2:0.153696 3:0.0175097 4:0.116732 5:0.389105 6:0.202335 7:0.291829 8:0.276265 9:0.653696 10:0.840467 
-1 -1 -1 1 1 1 0:0.15625 1:0.109375 2:0.159375 3:0.0234375 4:0.09375 5:0.442708 6:0.21875 7:0.390625 8:0.338542 9:1.05729 10:1.01562 
-1 -1 -1 1 1 1 0:0.180944 1:0.133741 2:0.186189 3:0.0262238 4:0.141608 5:0.41958 6:0.196678 7:0.367133 8:0.351399 9:1.02797 10:0.986014 
-1 -1 -1 1 1 1 0:0.121324 1:0.0882353 2:0.129596 3:0.0193015 4:0.132353 5:0.386029 6:0.198529 7:0.303309 8:0.369485 9:0.772059 10:0.84375 
-1 -1 -1 1 1 1 0:0.149201 1:0.098579 2:0.147602 3:0.0186501 4:0.0772647 5:0.442274 6:0.205151 7:0.287744 8:0.314387 9:0.687389 10:1.01776 
-1 -1 -1 1 1 1 0:0.136121 1:0.0934164 2:0.140391 3:0.00800712 4:0.104093 5:0.453737 6:0.186833 7:0.266904 8:0.30427 9:0.66726 10:0.976868 
-1 -0 -0 1 1 1 0:0.139469 1:0.116698 2:0.150285 3:0.0056926 4:0.0939279 5:0.483871 6:0.227704 7:0.398482 8:0.370019 9:1.09298 10:1.06452 
-1 -1 -1 1 1 1 0:0.123092 1:0.0830153 2:0.128244 3:0.0171756 4:0.120229 5:0.423664 6:0.229008 7:0.291985 8:0.291985 9:0.641221 10:0.984733 
-1 -1 -1 1 1 1 0:0.15411 1:0.128425 2:0.164897 3:0.0205479 4:0.0744863 5:0.436644 6:0.128425 7:0.205479 8:0.333904 9:0.457192 10:0.780822 
-1 -1 -1 0 1 0.08802908509484257 0:0.144128 1:0.106762 2:0.147865 3:0.0213523 4:0.0907473 5:0.448399 6:0.200178 7:0.384342 8:0.362989 9:1.12633 10:1.00356 
-1 -1 -1 -0.009976582316133324 1 1 0:0.123418 1:0.0816456 2:0.125316 3:0.0170886 4:0.0987342 5:0.398734 6:0.161392 7:0.212658 8:0.322785 9:0.429114 10:0.789873 
-1 -1 -1 -1 1 1 0:0.120719 1:0.100171 2:0.132021 3:0.0231164 4:0.0744863 5:0.42637 6:0.190068 7:0.261986 8:0.344178 9:0.549658 10:0.919521 
-1 -1 -1 -1 1 1 0:0.13089 1:0.091623 2:0.13822 3:0.013089 4:0.102094 5:0.439791 6:0.146597 7:0.21466 8:0.340314 9:0.518325 10:0.858639 
-1 -1 -1 -1 1 1 0:0.101463 1:0.0685558 2:0.110238 3:0.0164534 4:0.0767824 5:0.394881 6:0.164534 7:0.219378 8:0.378428 9:0.499086 10:0.844607 
-1 -1 -1 -1 1 1 0:0.0887097 1:0.0672043 2:0.0989247 3:0.0188172 4:0.0698925 5:0.435484 6:0.147849 7:0.215054 8:0.370968 9:0.483871 10:0.83871 
-1 -1 -1 -0 1 1 0:0.101968 1:0.0778175 2:0.113775 3:0.00805009 4:0.0831843 5:0.440072 6:0.126118 7:0.182469 8:0.332737 9:0.418605 10:0.794275 
-1 -1 -1 -1 1 1 0:0.0969582 1:0.0941065 2:0.115209 3:0.0171103 4:0.102662 5:0.473384 6:0.151141 7:0.228137 8:0.393536 9:0.519011 10:0.918251 
-1 -1 -1 -1 1 1 0:0.0784884 1:0.0465116 2:0.0872093 3:0.0174419 4:0.0843023 5:0.406977 6:0.156977 7:0.215116 8:0.360465 9:0.482558 10:0.819767 
-1 -1 -1 -1 1 1 0:0.119088 1:0.0912162 2:0.128716 3:0.0177365 4:0.0760135 5:0.430743 6:0.141892 7:0.212838 8:0.329392 9:0.466216 10:0.815878 
-1 -1 -1 -1 1 1 0:0.156475 1:0.110612 2:0.156475 3:0.0296763 4:0.0944245 5:0.469424 6:0.156475 7:0.210432 8:0.350719 9:0.480216 10:0.852518 
-1 -1 -1 -1 1 1 0:0.123418 1:0.0816456 2:0.125316 3:0.0170886 4:0.0987342 5:0.398734 6:0.161392 7:0.212658 8:0.322785 9:0.429114 10:0.789873 
-1 -1 -1 -1 1 1 0:0.120719 1:0.100171 2:0.132021 3:0.0231164 4:0.0744863 5:0.42637 6:0.190068 7:0.261986 8:0.344178 9:0.549658 10:0.919521 
-1 -1 -1 -1 1 1 0:0.13089 1:0.091623 2:0.13822 3:0.013089 4:0.102094 5:0.439791 6:0.146597 7:0.21466 8:0.340314 9:0.518325 10:0.858639 
-1 -1 -1 -1 1 1 0:0.101463 1:0.0685558 2:0.110238 3:0.0164534 4:0.0767824 5:0.394881 6:0.164534 7:0.219378 8:0.378428 9:0.499086 10:0.844607 
-1 -1 -1 -1 1 1 0:0.0887097 1:0.0672043 2:0.0989247 3:0.0188172 4:0.0698925 5:0.435484 6:0.147849 7:0.215054 8:0.370968 9:0.483871 10:0.83871 
-1 -1 -1 -0 1 1 0:0.101968 1:0.0778175 2:0.113775 3:0.00805009 4:0.0831843 5:0.440072 6:0.126118 7:0.182469 8:0.332737 9:0.418605 10:0.794275 
-1 -1 -1 -1 1 1 0:0.0969582 1:0.0941065 2:0.115209 3:0.0171103 4:0.102662 5:0.473384 6:0.151141 7:0.228137 8:0.393536 9:0.519011 10:0.918251 
-1 -1 -1 -1 1 1 0:0.0784884 1:0.0465116 2:0.0872093 3:0.0174419 4:0.0843023 5:0.406977 6:0.156977 7:0.215116 8:0.360465 9:0.482558 10:0.819767 
-1 -1 -1 -1 1 1 0:0.119088 1:0.0912162 2:0.128716 3:0.0177365 4:0.0760135 5:0.430743 6:0.141892 7:0.212838 8:0.329392 9:0.466216 10:0.815878 
-1 -1 -1 -1 1 1 0:0.156475 1:0.110612 2:0.156475 3:0.0296763 4:0.0944245 5:0.469424 6:0.156475 7:0.210432 8:0.350719 9:0.480216 10:0.852518 
-1 -1 -1 -1 1 1 0:0.123418 1:0.0816456 2:0.125316 3:0.0170886 4:0.0987342 5:0.398734 6:0.161392 7:0.212658 8:0.322785 9:0.429114 10:0.789873 
-1 -1 -1 -1 1 1 0:0.120719 1:0.100171 2:0.132021 3:0.0231164 4:0.0744863 5:0.42637 6:0.190068 7:0.261986 8:0.344178 9:0.549658 10:0.919521 
-1 -1 -1 -1 1 1 0:0.13089 1:0.091623 2:0.13822 3:0.013089 4:0.102094 5:0.439791 6:0.146597 7:0.21466 8:0.340314 9:0.518325 10:0.858639 
-1 -1 -1 -1 1 1 0:0.101463 1:0.0685558 2:0.110238 3:0.0164534 4:0.0767824 5:0.394881 6:0.164534 7:0.219378 8:0.378428 9:0.499086 10:0.844607 
-1 -1 -1 -1 1 1 0:0.0887097 1:0.0672043 2:0.0989247 3:0.0188172 4:0.0698925 5:0.435484 6:0.147849 7:0.215054 8:0.370968 9:0.483871 10:0.83871 
-1 -1 -1 -0 1 1 0:0.101968 1:0.0778175 2:0.113775 3:0.00805009 4:0.0831843 5:0.440072 6:0.126118 7:0.182469 8:0.332737 9:0.418605 10:0.794275 
-1 -1 -1 -1 1 1 0:0.0969582 1:0.0941065 2:0.115209 3:0.0171103 4:0.102662 5:0.473384 6:0.151141 7:0.228137 8:0.393536 9:0.519011 10:0.918251 
-1 -1 -1 -1 1 1 0:0.0784884 1:0.0465116 2:0.0872093 3:0.0174419 4:0.0843023 5:0.406977 6:0.156977 7:0.215116 8:0.360465 9:0.482558 10:0.819767 
-1 -1 -1 -1 1 1 0:0.119088 1:0.0912162 2:0.128716 3:0.0177365 4:0.0760135 5:0.430743 6:0.141892 7:0.212838 8:0.329392 9:0.466216 10:0.815878 
-1 -1 -1 -1 1 1 0:0.156475 1:0.110612 2:0.156475 3:0.0296763 4:0.0944245 5:0.469424 6:0.156475 7:0.210432 8:0.350719 9:0.480216 10:0.852518 
-1 -1 -1 -1 1 1 0:0.123418 1:0.0816456 2:0.125316 3:0.0170886 4:0.0987342 5:0.398734 6:0.161392 7:0.212658 8:0.322785 9:0.429114 10:0.789873 
-1 -1 -1 -1 1 1 0:0.120719 1:0.100171 2:0.132021 3:0.0231164 4:0.0744863 5:0.42637 6:0.190068 7:0.261986 8:0.344178 9:0.549658 10:0.919521 
-1 -1 -1 -1 1 1 0:0.13089 1:0.091623 2:0.13822 3:0.013089 4:0.102094 5:0.439791 6:0.146597 7:0.21466 8:0.340314 9:0.518325 10:0.858639 
-1 -1 -1 -1 1 1 0:0.101463 1:0.0685558 2:0.110238 3:0.0164534 4:0.0767824 5:0.394881 6:0.164534 7:0.219378 8:0.378428 9:0.499086 10:0.844607 
-1 -1 -1 -1 1 1 0:0.0887097 1:0.0672043 2:0.0989247 3:0.0188172 4:0.0698925 5:0.435484 6:0.147849 7:0.215054 8:0.370968 9:0.483871 10:0.83871 
-1 -1 -1 -0 1 1 0:0.101968 1:0.0778175 2:0.113775 3:0.00805009 4:0.0831843 5:0.440072 6:0.126118 7:0.182469 8:0.332737 9:0.418605 10:0.794275 
-1 -1 -1 -1 1 1 0:0.0969582 1:0.0941065 2:0.115209 3:0.0171103 4:0.102662 5:0.473384 6:0.151141 7:0.228137 8:0.393536 9:0.519011 10:0.918251 
-1 -1 -1 -1 1 1 0:0.0784884 1:0.0465116 2:0.0872093 3:0.0174419 4:0.0843023 5:0.406977 6:0.156977 7:0.215116 8:0.360465 9:0.482558 10:0.819767 
-1 -1 -1 -1 1 1 0:0.119088 1:0.0912162 2:0.128716 3:0.0177365 4:0.0760135 5:0.430743 6:0.141892 7:0.212838 8:0.329392 9:0.466216 10:0.815878 
-1 -1 -1 -1 1 1 0:0.156475 1:0.110612 2:0.156475 3:0.0296763 4:0.0944245 5:0.469424 6:0.156475 7:0.210432 8:0.350719 9:0.480216 10:0.852518 
-1 -1 -1 -1 1 1 0:0.123418 1:0.0816456 2:0.125316 3:0.0170886 4:0.0987342 5:0.398734 6:0.161392 7:0.212658 8:0.322785 9:0.429114 10:0.789873 
-1 -1 -1 -1 1 1 0:0.120719 1:0.100171 2:0.132021 3:0.0231164 4:0.0744863 5:0.42637 6:0.190068 7:0.261986 8:0.344178 9:0.549658 10:0.919521 
-1 -1 -1 -1 1 1 0:0.13089 1:0.091623 2:0.13822 3:0.013089 4:0.102094 5:0.439791 6:0.146597 7:0.21466 8:0.340314 9:0.518325 10:0.858639 
-1 -1 -1 -1 1 1 0:0.101463 1:0.0685558 2:0.110238 3:0.0164534 4:0.0767824 5:0.394881 6:0.164534 7:0.219378 8:0.378428 9:0.499086 10:0.844607 
-1 -1 -1 -1 1 1 0:0.0887097 1:0.0672043 2:0.0989247 3:0.0188172 4:0.0698925 5:0.435484 6:0.147849 7:0.215054 8:0.370968 9:0.483871 10:0.83871 
-1 -1 -1 -0 1 1 0:0.101968 1:0.0778175 2:0.113775 3:0.00805009 4:0.0831843 5:0.440072 6:0.126118 7:0.182469 8:0.332737 9:0.418605 10:0.794275 
-1 -1 -1 -1 1 1 0:0.0969582 1:0.0941065 2:0.115209 3:0.0171103 4:0.102662 5:0.473384 6:0.151141 7:0.228137 8:0.393536 9:0.519011 10:0.918251 
-1 -1 -1 -1 1 1 0:0.0784884 1:0.0465116 2:0.0872093 3:0.0174419 4:0.0843023 5:0.406977 6:0.156977 7:0.215116 8:0.360465 9:0.482558 10:0.819767 
-1 -1 -1 -1 1 1 0:0.119088 1:0.0912162 2:0.128716 3:0.0177365 4:0.0760135 5:0.430743 6:0.141892 7:0.212838 8:0.329392 9:0.466216 10:0.815878 
-1 -1 -1 -1 1 1 0:0.156475 1:0.110612 2:0.156475 3:0.0296763 4:0.0944245 5:0.469424 6:0.156475 7:0.210432 8:0.350719 9:0.480216 10:0.852518 
-1 -1 -1 -1 -1 1 0:0.118471 1:0.0764331 2:0.122293 3:0.011465 4:0.0764331 5:0.343949 6:0.118471 7:0.202548 8:0.447134 9:0.527389 10:0.768153 
-1 -1 -1 -1 -1 1 0:0.135628 1:0.0931174 2:0.140891 3:0.0121457 4:0.133603 5:0.421053 6:0.103239 7:0.186235 8:0.453441 9:0.510121 10:0.797571 
-1 -1 -1 -1 -1 1 0:0.122658 1:0.0945486 2:0.12879 3:0.0204429 4:0.0715503 5:0.403748 6:0.145656 7:0.286201 8:0.465077 9:0.781942 10:0.858603 
-1 -1 -1 -1 -1 1 0:0.106961 1:0.0942275 2:0.124788 3:0.0127334 4:0.0636672 5:0.412564 6:0.0891341 7:0.188455 8:0.453311 9:0.555178 10:0.78438 
-1 -1 -1 -0 -1 1 0:0.10354 1:0.0663717 2:0.107257 3:0.0132743 4:0.0530973 5:0.440708 6:0.0955752 7:0.169912 8:0.40885 9:0.446018 10:0.823009 
-1 -1 -1 -1 -1 1 0:0.0956284 1:0.0901639 2:0.110383 3:0.010929 4:0.0928962 5:0.453552 6:0.114754 7:0.20765 8:0.47541 9:0.546448 10:0.901639 
-1 -1 -1 -1 -1 1 0:0.0890805 1:0.0545977 2:0.0965517 3:0.0143678 4:0.0574713 5:0.431034 6:0.12069 7:0.247126 8:0.436782 9:0.695402 10:0.844828 
-1 -1 -1 -1 -1 1 0:0.105528 1:0.0829146 2:0.118593 3:0.0150754 4:0.0703518 5:0.427136 6:0.113065 7:0.190955 8:0.351759 9:0.467337 10:0.753769 
-1 -1 -1 -1 -1 1 0:0.137566 1:0.108466 2:0.144444 3:0.026455 4:0.0740741 5:0.444444 6:0.103175 7:0.201058 8:0.497354 9:0.587302 10:0.84127 
-1 -1 -1 -1 -1 1 0:0.0958549 1:0.0621762 2:0.103627 3:0.00777202 4:0.0829016 5:0.34715 6:0.15544 7:0.274611 8:0.440415 9:0.761658 10:0.818653 
-1 -1 -1 -1 -1 1 0:0.118471 1:0.0764331 2:0.122293 3:0.011465 4:0.0764331 5:0.343949 6:0.118471 7:0.202548 8:0.447134 9:0.527389 10:0.768153 
-1 -1 -1 -1 -1 1 0:0.135628 1:0.0931174 2:0.140891 3:0.0121457 4:0.133603 5:0.421053 6:0.103239 7:0.186235 8:0.453441 9:0.510121 10:0.797571 
-1 -1 -1 -1 -1 1 0:0.122658 1:0.0945486 2:0.12879 3:0.0204429 4:0.0715503 5:0.403748 6:0.145656 7:0.286201 8:0.465077 9:0.781942 10:0.858603 
-1 -1 -1 -1 -1 1 0:0.106961 1:0.0942275 2:0.124788 3:0.0127334 4:0.0636672 5:0.412564 6:0.0891341 7:0.188455 8:0.453311 9:0.555178 10:0.78438 
-1 -1 -1 -0.1459264463509592 -1 1 0:0.10354 1:0.0663717 2:0.107257 3:0.0132743 4:0.0530973 5:0.440708 6:0.0955752 7:0.169912 8:0.40885 9:0.446018 10:0.823009 
-1 -1 -1 -1 -1 1 0:0.0956284 1:0.0901639 2:0.110383 3:0.010929 4:0.0928962 5:0.453552 6:0.114754 7:0.20765 8:0.47541 9:0.546448 10:0.901639 
-1 -1 -1 -1 -1 1 0:0.0890805 1:0.0545977 2:0.0965517 3:0.0143678 4:0.0574713 5:0.431034 6:0.12069 7:0.247126 8:0.436782 9:0.695402 10:0.844828 
-1 -1 -1 -1 -1 1 0:0.105528 1:0.0829146 2:0.118593 3:0.0150754 4:0.0703518 5:0.427136 6:0.113065 7:0.190955 8:0.351759 9:0.467337 10:0.753769 
-1 -1 -1 -1 -1 1 0:0.137566 1:0.108466 2:0.144444 3:0.026455 4:0.0740741 5:0.444444 6:0.103175 7:0.201058 8:0.497354 9:0.587302 10:0.84127 
-1 -1 -1 -1 -1 1 0:0.0958549 1:0.0621762 2:0.103627 3:0.00777202 4:0.0829016 5:0.34715 6:0.15544 7:0.274611 8:0.440415 9:0.761658 10:0.818653 
-1 -1 -1 -1 -1 1 0:0.118471 1:0.0764331 2:0.122293 3:0.011465 4:0.0764331 5:0.343949 6:0.118471 7:0.202548 8:0.447134 9:0.527389 10:0.768153 
-1 -1 -1 -1 -1 1 0:0.135628 1:0.0931174 2:0.140891 3:0.0121457 4:0.133603 5:0.421053 6:0.103239 7:0.186235 8:0.453441 9:0.510121 10:0.797571 
-1 -1 -1 -1 -1 1 0:0.122658 1:0.0945486 2:0.12879 3:0.0204429 4:0.0715503 5:0.403748 6:0.145656 7:0.286201 8:0.465077 9:0.781942 10:0.858603 
-1 -1 -1 -1 -1 1 0:0.106961 1:0.0942275 2:0.124788 3:0.0127334 4:0.0636672 5:0.412564 6:0.0891341 7:0.188455 8:0.453311 9:0.555178 10:0.78438 
-1 -1 -1 -1 -1 1 0:0.10354 1:0.0663717 2:0.107257 3:0.0132743 4:0.0530973 5:0.440708 6:0.0955752 7:0.169912 8:0.40885 9:0.446018 10:0.823009 
-1 -1 -1 -1 -1 1 0:0.0956284 1:0.0901639 2:0.110383 3:0.010929 4:0.0928962 5:0.453552 6:0.114754 7:0.20765 8:0.47541 9:0.546448 10:0.901639 
-1 -1 -1 -1 -1 1 0:0.0890805 1:0.0545977 2:0.0965517 3:0.0143678 4:0.0574713 5:0.431034 6:0.12069 7:0.247126 8:0.436782 9:0.695402 10:0.844828 
-1 -1 -1 -1 -1 1 0:0.105528 1:0.0829146 2:0.118593 3:0.0150754 4:0.0703518 5:0.427136 6:0.113065 7:0.190955 8:0.351759 9:0.467337 10:0.753769 
-1 -1 -1 -1 -1 1 0:0.137566 1:0.108466 2:0.144444 3:0.026455 4:0.0740741 5:0.444444 6:0.103175 7:0.201058 8:0.497354 9:0.587302 10:0.84127 
-1 -1 -1 -1 -1 1 0:0.0958549 1:0.0621762 2:0.103627 3:0.00777202 4:0.0829016 5:0.34715 6:0.15544 7:0.274611 8:0.440415 9:0.761658 10:0.818653 
-1 -1 -1 -1 -1 1 0:0.118471 1:0.0764331 2:0.122293 3:0.011465 4:0.0764331 5:0.343949 6:0.118471 7:0.202548 8:0.447134 9:0.527389 10:0.768153 
-1 -1 -1 -1 -1 1 0:0.135628 1:0.0931174 2:0.140891 3:0.0121457 4:0.133603 5:0.421053 6:0.103239 7:0.186235 8:0.453441 9:0.510121 10:0.797571 
-1 -1 -1 -1 -1 1 0:0.122658 1:0.0945486 2:0.12879 3:0.0204429 4:0.0715503 5:0.403748 6:0.145656 7:0.286201 8:0.465077 9:0.781942 10:0.858603 
-1 -1 -1 -1 -1 1 0:0.106961 1:0.0942275 2:0.124788 3:0.0127334 4:0.0636672 5:0.412564 6:0.0891341 7:0.188455 8:0.453311 9:0.555178 10:0.78438 
-1 -1 -1 -1 -1 1 0:0.10354 1:0.0663717 2:0.107257 3:0.0132743 4:0.0530973 5:0.440708 6:0.0955752 7:0.169912 8:0.40885 9:0.446018 10:0.823009 
-1 -1 -1 -1 -1 1 0:0.0956284 1:0.0901639 2:0.110383 3:0.010929 4:0.0928962 5:0.453552 6:0.114754 7:0.20765 8:0.47541 9:0.546448 10:0.901639 
-1 -1 -1 -1 -1 1 0:0.0890805 1:0.0545977 2:0.0965517 3:0.0143678 4:0.0574713 5:0.431034 6:0.12069 7:0.247126 8:0.436782 9:0.695402 10:0.844828 
-1 -1 -1 -1 -1 1 0:0.105528 1:0.0829146 2:0.118593 3:0.0150754 4:0.0703518 5:0.427136 6:0.113065 7:0.190955 8:0.351759 9:0.467337 10:0.753769 
-1 -1 -1 -1 -1 1 0:0.137566 1:0.108466 2:0.144444 3:0.026455 4:0.0740741 5:0.444444 6:0.103175 7:0.201058 8:0.497354 9:0.587302 10:0.84127 
-1 -1 -1 -1 -1 1 0:0.0958549 1:0.0621762 2:0.103627 3:0.00777202 4:0.0829016 5:0.34715 6:0.15544 7:0.274611 8:0.440415 9:0.761658 10:0.818653 
-1 -1 -1 -1 -1 1 0:0.118471 1:0.0764331 2:0.122293 3:0.011465 4:0.0764331 5:0.343949 6:0.118471 7:0.202548 8:0.447134 9:0.527389 10:0.768153 
-1 -1 -1 -1 -1 1 0:0.135628 1:0.0931174 2:0.140891 3:0.0121457 4:0.133603 5:0.421053 6:0.103239 7:0.186235 8:0.453441 9:0.510121 10:0.797571 
-1 -1 -1 -1 -1 1 0:0.122658 1:0.0945486 2:0.12879 3:0.0204429 4:0.0715503 5:0.403748 6:0.145656 7:0.286201 8:0.465077 9:0.781942 10:0.858603 
-1 -1 -1 -1 -1 1 0:0.106961 1:0.0942275 2:0.124788 3:0.0127334 4:0.0636672 5:0.412564 6:0.0891341 7:0.188455 8:0.453311 9:0.555178 10:0.78438 
-1 -1 -1 -1 -1 1 0:0.10354 1:0.0663717 2:0.107257 3:0.0132743 4:0.0530973 5:0.440708 6:0.0955752 7:0.169912 8:0.40885 9:0.446018 10:0.823009 
-1 -1 -1 -1 -1 1 0:0.0956284 1:0.0901639 2:0.110383 3:0.010929 4:0.0928962 5:0.453552 6:0.114754 7:0.20765 8:0.47541 9:0.546448 10:0.901639 
-1 -1 -1 -1 -1 1 0:0.0890805 1:0.0545977 2:0.0965517 3:0.0143678 4:0.0574713 5:0.431034 6:0.12069 7:0.247126 8:0.436782 9:0.695402 10:0.844828 
-1 -1 -1 -1 -1 1 0:0.105528 1:0.0829146 2:0.118593 3:0.0150754 4:0.0703518 5:0.427136 6:0.113065 7:0.190955 8:0.351759 9:0.467337 10:0.753769 
-1 -1 -1 -1 -1 1 0:0.137566 1:0.108466 2:0.144444 3:0.026455 4:0.0740741 5:0.444444 6:0.103175 7:0.201058 8:0.497354 9:0.587302 10:0.84127 
-1 -1 -1 -1 -1 1 0:0.0958549 1:0.0621762 2:0.103627 3:0.00777202 4:0.0829016 5:0.34715 6:0.15544 7:0.274611 8:0.440415 9:0.761658 10:0.818653 
-1 -1 -1 -1 -1 -1 0:0.126703 1:0.0837875 2:0.133243 3:0.0163488 4:0.141008 5:0.408719 6:0.165531 7:0.23297 8:0.318801 9:0.519074 10:0.80109 
-1 -1 -1 -1 -1 -1 0:0.118151 1:0.100171 2:0.130993 3:0.0205479 4:0.0770548 5:0.421233 6:0.174658 7:0.256849 8:0.359589 9:0.565068 10:0.893836 
-1 -1 -1 -1 -1 -1 0:0.111785 1:0.0987868 2:0.130503 3:0.0233969 4:0.106586 5:0.426343 6:0.142981 7:0.213172 8:0.348354 9:0.52513 10:0.847487 
-1 -1 -1 -1 -1 -1 0:0.114769 1:0.0854093 2:0.124911 3:0.00800712 4:0.0720641 5:0.437722 6:0.130783 7:0.192171 8:0.325623 9:0.44306 10:0.795374 
-1 -1 -1 -1 -1 -1 0:0.125418 1:0.0777592 2:0.12592 3:0.0100334 4:0.0727425 5:0.441472 6:0.155518 7:0.225753 8:0.371237 9:0.516722 10:0.852843 
-1 -1 -1 -1 -1 -1 0:0.106119 1:0.0946463 2:0.118738 3:0.0143403 4:0.10325 5:0.458891 6:0.172084 7:0.258126 8:0.378585 9:0.608031 10:0.923518 
-1 -1 -1 -1 -1 -1 0:0.0901163 1:0.0552326 2:0.0965116 3:0.0145349 4:0.0988372 5:0.424419 6:0.165698 7:0.226744 8:0.360465 9:0.505814 10:0.843023 
-1 -1 -1 -1 -1 -1 0:0.106239 1:0.0834739 2:0.119393 3:0.0151771 4:0.0860034 5:0.419899 6:0.141653 7:0.20742 8:0.333895 9:0.450253 10:0.799325 
-1 -1 -1 -1 -1 -1 0:0.145161 1:0.107527 2:0.148387 3:0.0241935 4:0.0967742 5:0.451613 6:0.145161 7:0.209677 8:0.370968 9:0.489247 10:0.844086 
-1 -1 -1 -0 -1 -1 0:0.0927835 1:0.0670103 2:0.104639 3:0.0128866 4:0.100515 5:0.350515 6:0.162371 7:0.21134 8:0.350515 9:0.453608 10:0.757732 
-1 -1 -1 -1 -1 -1 0:0.126703 1:0.0837875 2:0.133243 3:0.0163488 4:0.141008 5:0.408719 6:0.165531 7:0.23297 8:0.318801 9:0.519074 10:0.80109 
-1 -1 -1 -1 -1 -1 0:0.118151 1:0.100171 2:0.130993 3:0.0205479 4:0.0770548 5:0.421233 6:0.174658 7:0.256849 8:0.359589 9:0.565068 10:0.893836 
-1 -1 -1 -1 -1 -1 0:0.111785 1:0.0987868 2:0.130503 3:0.0233969 4:0.106586 5:0.426343 6:0.142981 7:0.213172 8:0.348354 9:0.52513 10:0.847487 
-1 -1 -1 -1 -1 -1 0:0.114769 1:0.0854093 2:0.124911 3:0.00800712 4:0.0720641 5:0.437722 6:0.130783 7:0.192171 8:0.325623 9:0.44306 10:0.795374 
-1 -1 -1 -1 -1 -1 0:0.125418 1:0.0777592 2:0.12592 3:0.0100334 4:0.0727425 5:0.441472 6:0.155518 7:0.225753 8:0.371237 9:0.516722 10:0.852843 
-1 -1 -1 -1 -1 -1 0:0.106119 1:0.0946463 2:0.118738 3:0.0143403 4:0.10325 5:0.458891 6:0.172084 7:0.258126 8:0.378585 9:0.608031 10:0.923518 
-1 -1 -1 -1 -1 -1 0:0.0901163 1:0.0552326 2:0.0965116 3:0.0145349 4:0.0988372 5:0.424419 6:0.165698 7:0.226744 8:0.360465 9:0.505814 10:0.843023 
-1 -1 -1 -1 -1 -1 0:0.106239 1:0.0834739 2:0.119393 3:0.0151771 4:0.0860034 5:0.419899 6:0.141653 7:0.20742 8:0.333895 9:0.450253 10:0.799325 
-1 -1 -1 -1 -1 -1 0:0.145161 1:0.107527 2:0.148387 3:0.0241935 4:0.0967742 5:0.451613 6:0.145161 7:0.209677 8:0.370968 9:0.489247 10:0.844086 
-1 -1 -1 -0 -1 -1 0:0.0927835 1:0.0670103 2:0.104639 3:0.0128866 4:0.100515 5:0.350515 6:0.162371 7:0.21134 8:0.350515 9:0.453608 10:0.757732 
-1 -1 -1 -1 -1 -1 0:0.126703 1:0.0837875 2:0.133243 3:0.0163488 4:0.141008 5:0.408719 6:0.165531 7:0.23297 8:0.318801 9:0.519074 10:0.80109 
-1 -1 -1 -1 -1 -1 0:0.118151 1:0.100171 2:0.130993 3:0.0205479 4:0.0770548 5:0.421233 6:0.174658 7:0.256849 8:0.359589 9:0.565068 10:0.893836 
-1 -1 -1 -1 -1 -1 0:0.111785 1:0.0987868 2:0.130503 3:0.0233969 4:0.106586 5:0.426343 6:0.142981 7:0.213172 8:0.348354 9:0.52513 10:0.847487 
-1 -1 -1 -1 -1 -1 0:0.114769 1:0.0854093 2:0.124911 3:0.00800712 4:0.0720641 5:0.437722 6:0.130783 7:0.192171 8:0.325623 9:0.44306 10:0.795374 
-1 -1 -1 -1 -1 -1 0:0.125418 1:0.0777592 2:0.12592 3:0.0100334 4:0.0727425 5:0.441472 6:0.155518 7:0.225753 8:0.371237 9:0.516722 10:0.852843 
-1 -1 -1 -1 -1 -1 0:0.106119 1:0.0946463 2:0.118738 3:0.0143403 4:0.10325 5:0.458891 6:0.172084 7:0.258126 8:0.378585 9:0.608031 10:0.923518 
-1 -1 -1 -1 -1 -1 0:0.0901163 1:0.0552326 2:0.0965116 3:0.0145349 4:0.0988372 5:0.424419 6:0.165698 7:0.226744 8:0.360465 9:0.505814 10:0.843023 
-1 -1 -1 -1 -1 -1 0:0.106239 1:0.0834739 2:0.119393 3:0.0151771 4:0.0860034 5:0.419899 6:0.141653 7:0.20742 8:0.333895 9:0.450253 10:0.799325 
-1 -1 -1 -1 -1 -1 0:0.145161 1:0.107527 2:0.148387 3:0.0241935 4:0.0967742 5:0.451613 6:0.145161 7:0.209677 8:0.370968 9:0.489247 10:0.844086 
-1 -1 -1 -0 -1 -1 0:0.0927835 1:0.0670103 2:0.104639 3:0.0128866 4:0.100515 5:0.350515 6:0.162371 7:0.21134 8:0.350515 9:0.453608 10:0.757732 
-1 -1 -1 -1 -1 -1 0:0.126703 1:0.0837875 2:0.133243 3:0.0163488 4:0.141008 5:0.408719 6:0.165531 7:0.23297 8:0.318801 9:0.519074 10:0.80109 
-1 -1 -1 -1 -1 -1 0:0.118151 1:0.100171 2:0.130993 3:0.0205479 4:0.0770548 5:0.421233 6:0.174658 7:0.256849 8:0.359589 9:0.565068 10:0.893836 
-1 -1 -1 -1 -1 -1 0:0.111785 1:0.0987868 2:0.130503 3:0.0233969 4:0.106586 5:0.426343 6:0.142981 7:0.213172 8:0.348354 9:0.52513 10:0.847487 
-1 -1 -1 -0.2939513070127936 -1 -1 0:0.114769 1:0.0854093 2:0.124911 3:0.00800712 4:0.0720641 5:0.437722 6:0.130783 7:0.192171 8:0.325623 9:0.44306 10:0.795374 
-1 -1 -1 -1 -1 -1 0:0.125418 1:0.0777592 2:0.12592 3:0.0100334 4:0.0727425 5:0.441472 6:0.155518 7:0.225753 8:0.371237 9:0.516722 10:0.852843 
-1 -1 -1 -1 -1 -1 0:0.106119 1:0.0946463 2:0.118738 3:0.0143403 4:0.10325 5:0.458891 6:0.172084 7:0.258126 8:0.378585 9:0.608031 10:0.923518 
-1 -1 -1 -1 -1 -1 0:0.0901163 1:0.0552326 2:0.0965116 3:0.0145349 4:0.0988372 5:0.424419 6:0.165698 7:0.226744 8:0.360465 9:0.505814 10:0.843023 
-1 -1 -1 -1 -1 -1 0:0.106239 1:0.0834739 2:0.119393 3:0.0151771 4:0.0860034 5:0.419899 6:0.141653 7:0.20742 8:0.333895 9:0.450253 10:0.799325 
-1 -1 -1 -1 -1 -1 0:0.145161 1:0.107527 2:0.148387 3:0.0241935 4:0.0967742 5:0.451613 6:0.145161 7:0.209677 8:0.370968 9:0.489247 10:0.844086 
-1 -1 -1 -0.7940777780820489 -1 -1 0:0.0927835 1:0.0670103 2:0.104639 3:0.0128866 4:0.100515 5:0.350515 6:0.162371 7:0.21134 8:0.350515 9:0.453608 10:0.757732 
-1 -1 -1 -1 -1 -1 0:0.126703 1:0.0837875 2:0.133243 3:0.0163488 4:0.141008 5:0.408719 6:0.165531 7:0.23297 8:0.318801 9:0.519074 10:0.80109 
-1 -1 -1 -1 -1 -1 0:0.118151 1:0.100171 2:0.130993 3:0.0205479 4:0.0770548 5:0.421233 6:0.174658 7:0.256849 8:0.359589 9:0.565068 10:0.893836 
-1 -1 -1 -1 -1 -1 0:0.111785 1:0.0987868 2:0.130503 3:0.0233969 4:0.106586 5:0.426343 6:0.142981 7:0.213172 8:0.348354 9:0.52513 10:0.847487 
-1 -1 -1 -0 -1 -1 0:0.114769 1:0.0854093 2:0.124911 3:0.00800712 4:0.0720641 5:0.437722 6:0.130783 7:0.192171 8:0.325623 9:0.44306 10:0.795374 
-1 -1 -1 -1 -1 -1 0:0.125418 1:0.0777592 2:0.12592 3:0.0100334 4:0.0727425 5:0.441472 6:0.155518 7:0.225753 8:0.371237 9:0.516722 10:0.852843 
-1 -1 -1 -1 -1 -1 0:0.106119 1:0.0946463 2:0.118738 3:0.0143403 4:0.10325 5:0.458891 6:0.172084 7:0.258126 8:0.378585 9:0.608031 10:0.923518 
-1 -1 -1 -1 -1 -1 0:0.0901163 1:0.0552326 2:0.0965116 3:0.0145349 4:0.0988372 5:0.424419 6:0.165698 7:0.226744 8:0.360465 9:0.505814 10:0.843023 
-1 -1 -1 -1 -1 -1 0:0.106239 1:0.0834739 2:0.119393 3:0.0151771 4:0.0860034 5:0.419899 6:0.141653 7:0.20742 8:0.333895 9:0.450253 10:0.799325 
-1 -1 -1 -1 -1 -1 0:0.145161 1:0.107527 2:0.148387 3:0.0241935 4:0.0967742 5:0.451613 6:0.145161 7:0.209677 8:0.370968 9:0.489247 10:0.844086 
-1 -1 -1 -1 -1 -1 0:0.0927835 1:0.0670103 2:0.104639 3:0.0128866 4:0.100515 5:0.350515 6:0.162371 7:0.21134 8:0.350515 9:0.453608 10:0.757732 
